svm_type c_svc
kernel_type polynomial
degree 3
gamma 0.166667
coef0 0
nr_class 2
total_sv 22
rho -1.19576
label 1 -1
nr_sv 11 11
SV
1743.059340053739 0:0.35812724 1:0.80434783 2:0.35 3:0.61666667 4:0.15 5:0.20481928 6:0 
2288.058085850979 0:0.83009251 1:0.54347826 2:0 3:0.23333333 4:0.25 5:0.093373494 6:0 
10000 0:0.49027752 1:0.95652174 2:0.025 3:0.26666667 4:0.2975 5:0.52108434 6:0 
2675.780680096177 0:0.49027752 1:0.32608696 2:0.695 3:0.083333333 4:0.7525 5:0.76204819 6:0 
7264.992540326588 0:0.22597697 1:0.63043478 2:0 3:0.31666667 4:0.1775 5:0.34939759 6:0 
2784.918139411713 0:0.24485558 1:0.67391304 2:0.6 3:0.38333333 4:0.34 5:0.28915663 6:0 
3460.954015912664 0:0.69794223 1:0.599557 2:0 3:0.41666667 4:0 5:0.28915663 6:0 
8444.839065812723 0:0.32037002 1:0.63043478 2:0.135 3:0.23333333 4:0.165 5:0.22590361 6:0 
1460.015011122791 0:0.22597697 1:0.56521739 2:0.365 3:0.3 4:0.33 5:0.48795181 6:1 
3096.624158293004 0:0.32037002 1:0.599557 2:0.04 3:0.13333333 4:0.17 5:0.46385542 6:0 
3677.942078116364 0:0.37700585 1:0.58695652 2:0.2045 3:0.23333333 4:0 5:0.32831325 6:0 
-5463.824267127784 0:0.35812724 1:0.47826087 2:0.625 3:0.25 4:0.55 5:0.70180723 6:0 
-5012.115048627326 0:0.093826694 1:0.7826087 2:0 3:0.26666667 4:0 5:0.37048193 6:0 
-5547.64681123031 0:0.36756655 1:1 2:0.125 3:0.18333333 4:0.30330158 5:0.40621235 6:0 
-1351.375874429131 0:0.37700585 1:0.52173913 2:0.155 3:0.033333333 4:0.5325 5:0.86445783 6:0 
-317.2966040498924 0:0.037190863 1:0.45652174 2:0.20823837 3:0.05 4:0.35 5:0.47590361 6:1 
-920.0494307247703 0:0.13158392 1:0.56521739 2:0.25 3:0.43333333 4:0.30330158 5:0.40621235 6:1 
-334.7685100037862 0:0.39588446 1:0.76086957 2:0 3:0.25 4:0.48 5:0.55120482 6:1 
-10000 0:0.2826128 1:0.54347826 2:0.02 3:0.28333333 4:0.2175 5:0.34337349 6:0 
-985.5994594348178 0:0.008872947 1:0.69565217 2:0 3:0.24166667 4:0.2825 5:0.52409639 6:0 
-10000 0:0.75457806 1:0.84782609 2:0.02 3:0.31666667 4:0.12 5:0.34337349 6:0 
-6964.507109368918 0:0.023031905 1:0.60869565 2:0.255 3:0.48333333 4:0.1725 5:0.030120482 6:0 
