svm_type c_svc
kernel_type polynomial
degree 3
gamma 0.2
coef0 0
nr_class 2
total_sv 33
rho -0.998708
label 1 -1
nr_sv 16 17
SV
1093.501724969884 0:0.28677564 1:-0.16031669 2:-0.12978229 3:0.16583705 4:-0.031584087 5:0.027722258 
5184.009515896574 0:0.19862467 1:-0.1044378 2:-0.39557152 3:0.060530033 4:0.1284681 5:-0.1532544 
10000 0:0.21283275 1:0.046761911 2:0.1316925 3:0.33307295 4:-0.15140958 5:0.14840426 
10000 0:0.20584466 1:0.039058284 2:0.098379482 3:0.18638637 4:-0.090227044 5:0.091452694 
3789.532812073258 0:-0.045000922 1:0.5247231 2:0.4627358 3:-0.49154604 4:0.064697219 5:0.067919207 
10000 0:0.12864677 1:0.095514412 2:-0.036860769 3:-0.029714687 4:0.14785745 5:-0.18648338 
10000 0:0.15054665 1:0.041486778 2:-0.15305513 3:0.22173358 4:0.10088341 5:-0.099907511 
997.9207825687907 0:0.15895291 1:0.25361749 2:0.70041722 3:0.16166522 4:-0.0093130839 5:-0.040181993 
1611.443637139419 0:0.27596787 1:-0.18800773 2:-0.22240583 3:0.19948759 4:-0.19037261 5:-0.10191176 
3379.665492165926 0:0.12854319 1:0.16681754 2:0.20243361 3:-0.063937956 4:0.019728885 5:-0.045041657 
10000 0:-0.0065817089 1:0.29412886 2:-0.23706273 3:-0.2091117 4:-0.13532473 5:0.14107496 
10000 0:0.16468035 1:0.028846937 2:-0.1941638 3:0.10310927 4:0.14232789 5:0.077542033 
10000 0:-0.82117875 1:-0.23853616 2:0.087865854 3:-0.051437055 4:0.012063875 5:0.030288698 
10000 0:0.15400769 1:0.090887643 2:0.016997345 3:0.19921263 4:0.20021229 5:-0.0020013232 
10000 0:0.10789686 1:0.22035105 2:0.23930846 3:0.020761069 4:0.05648897 5:-0.049720931 
2184.018822794586 0:0.17936113 1:0.0060048677 2:-0.16473902 3:0.045511944 4:0.13828583 5:0.082053049 
-10000 0:-0.042850991 1:0.45420758 2:0.23236904 3:-0.32687013 4:-0.068514223 5:0.012707922 
-10000 0:-0.0010661458 1:0.32161165 2:-0.21031283 3:0.1132558 4:-0.083079823 5:0.27482256 
-2397.428646855183 0:-0.99348337 1:0.05915243 2:0.10796694 3:-0.028832964 4:0.09708865 5:0.094769323 
-179.0315638619395 0:-0.99558789 1:0.022937212 2:0.014685311 3:-0.099998745 4:-0.15694929 5:0.042360039 
-7762.750233565694 0:0.10395091 1:0.094979546 2:-0.26924381 3:0.39052502 4:0.081250204 5:-0.039833346 
-53.57341473625722 0:-0.85707287 1:-0.19744019 2:0.14563981 3:0.092659335 4:0.21954518 5:-0.28321549 
-10000 0:0.13805908 1:0.14760559 2:-0.0033695127 3:0.33203238 4:-0.10129557 5:0.24473462 
-8993.608023204488 0:0.053181074 1:0.36190347 2:0.47629304 3:0.080981794 4:0.1430773 5:-0.079471384 
-5531.526341196311 0:-0.80814144 1:-0.3075771 2:-0.045153583 3:0.022467069 4:-0.017764274 5:-0.095263069 
-10000 0:-0.039638916 1:0.36112831 2:-0.083640532 3:0.1082314 4:0.17438167 5:-0.16157282 
-126.5944078782472 0:-0.15839883 1:0.51128725 2:-0.25023384 3:-0.39120696 4:0.16013037 5:-0.018470826 
-6983.028381721238 0:-0.12541432 1:0.46656026 2:-0.21983107 3:-0.15255366 4:-0.11388171 5:-0.081966914 
-1639.258540304571 0:-0.68512973 1:-0.38193825 2:0.33015642 3:0.25999222 4:-0.028430947 5:0.05178021 
-10000 0:0.16506678 1:0.030654867 2:-0.10150412 3:0.1390109 4:0.15931457 5:-0.098311286 
-7261.47270851061 0:0.016393335 1:0.27064174 2:-0.085229603 3:0.35381332 4:0.092019592 5:-0.17655939 
-10000 0:0.37646971 1:-0.22915686 2:0.0686244 3:0.17735283 4:-0.094994027 5:0.23829115 
-7311.820525773896 0:0.047441138 1:0.10392538 2:-0.56184067 3:0.025427347 4:0.031455224 5:-0.074019765 
