svm_type c_svc
kernel_type linear
nr_class 2
total_sv 20
rho -1.19571
label 1 -1
nr_sv 10 10
SV
6664.948183201021 0:0.30149141 1:0.76086957 2:0.5 3:0.43333333 4:0.1175 5:0.32228916 6:1 
10000 0:0.49027752 1:0.95652174 2:0.025 3:0.26666667 4:0.2975 5:0.52108434 6:0 
9.758094312183546 0:0.49027752 1:0.32608696 2:0.695 3:0.083333333 4:0.7525 5:0.76204819 6:0 
6939.18827736505 0:0.2826128 1:0.41304348 2:0.09 3:0.345 4:0.4475 5:0.3373494 6:0 
10000 0:0.22597697 1:0.63043478 2:0 3:0.31666667 4:0.1775 5:0.34939759 6:0 
4206.68572559112 0:0.60354918 1:0.65217391 2:0.045 3:0.083333333 4:0.59 5:1 6:0 
10000 0:0.24485558 1:0.67391304 2:0.6 3:0.38333333 4:0.34 5:0.28915663 6:0 
10000 0:0.22597697 1:0.56521739 2:0.365 3:0.3 4:0.33 5:0.48795181 6:1 
10000 0:0.32037002 1:0.599557 2:0.04 3:0.13333333 4:0.17 5:0.46385542 6:0 
10000 0:0.39588446 1:0.56521739 2:0.135 3:0.21666667 4:0.6375 5:0.52409639 6:0 
-10000 0:0.35812724 1:0.47826087 2:0.625 3:0.25 4:0.55 5:0.70180723 6:0 
-2072.001095922971 0:0.037190863 1:0.69565217 2:0.225 3:0.71666667 4:0.225 5:0.1626506 6:1 
-7884.980868101067 0:0.36756655 1:1 2:0.125 3:0.18333333 4:0.30330158 5:0.40621235 6:0 
-10000 0:0.37700585 1:0.52173913 2:0.155 3:0.033333333 4:0.5325 5:0.86445783 6:0 
-4593.60412228728 0:0.13158392 1:0.56521739 2:0.25 3:0.43333333 4:0.30330158 5:0.40621235 6:1 
-3269.994194158008 0:0.0135926 1:0.32608696 2:0.75 3:0.21666667 4:0.285 5:0.40060241 6:0 
-10000 0:0.39588446 1:0.76086957 2:0 3:0.25 4:0.48 5:0.55120482 6:1 
-10000 0:0.2826128 1:0.54347826 2:0.02 3:0.28333333 4:0.2175 5:0.34337349 6:0 
-10000 0:0.75457806 1:0.84782609 2:0.02 3:0.31666667 4:0.12 5:0.34337349 6:0 
-10000 0:0.023031905 1:0.60869565 2:0.255 3:0.48333333 4:0.1725 5:0.030120482 6:0 
