svm_type c_svc
kernel_type linear
nr_class 2
total_sv 26
rho -0.839664
label 1 -1
nr_sv 14 12
SV
0.9553356283603449 0:0.15651947 1:-0.0065204005 2:-0.34494371 3:-0.031073283 4:-0.28547569 5:0.071750466 
10 0:-0.77350299 1:-0.35676899 2:-0.14050598 3:-0.071343632 4:-0.17856103 5:0.21509839 
3.50787795578023 0:0.19862467 1:-0.1044378 2:-0.39557152 3:0.060530033 4:0.1284681 5:-0.1532544 
10 0:0.21283275 1:0.046761911 2:0.1316925 3:0.33307295 4:-0.15140958 5:0.14840426 
2.734062355018653 0:0.20584466 1:0.039058284 2:0.098379482 3:0.18638637 4:-0.090227044 5:0.091452694 
4.05811267459687 0:-0.045000922 1:0.5247231 2:0.4627358 3:-0.49154604 4:0.064697219 5:0.067919207 
10 0:0.12864677 1:0.095514412 2:-0.036860769 3:-0.029714687 4:0.14785745 5:-0.18648338 
10 0:0.15054665 1:0.041486778 2:-0.15305513 3:0.22173358 4:0.10088341 5:-0.099907511 
2.704077932615079 0:0.15895291 1:0.25361749 2:0.70041722 3:0.16166522 4:-0.0093130839 5:-0.040181993 
10 0:-0.0065817089 1:0.29412886 2:-0.23706273 3:-0.2091117 4:-0.13532473 5:0.14107496 
10 0:0.16468035 1:0.028846937 2:-0.1941638 3:0.10310927 4:0.14232789 5:0.077542033 
10 0:-0.82117875 1:-0.23853616 2:0.087865854 3:-0.051437055 4:0.012063875 5:0.030288698 
10 0:0.15400769 1:0.090887643 2:0.016997345 3:0.19921263 4:0.20021229 5:-0.0020013232 
10 0:0.10789686 1:0.22035105 2:0.23930846 3:0.020761069 4:0.05648897 5:-0.049720931 
-10 0:-0.042850991 1:0.45420758 2:0.23236904 3:-0.32687013 4:-0.068514223 5:0.012707922 
-3.360628970509362 0:-0.0010661458 1:0.32161165 2:-0.21031283 3:0.1132558 4:-0.083079823 5:0.27482256 
-10 0:0.10395091 1:0.094979546 2:-0.26924381 3:0.39052502 4:0.081250204 5:-0.039833346 
-0.5988375758618163 0:-0.7846105 1:-0.43545138 2:-0.37390781 3:0.068539424 4:-0.21008809 5:-0.13956889 
-10 0:0.13805908 1:0.14760559 2:-0.0033695127 3:0.33203238 4:-0.10129557 5:0.24473462 
-10 0:0.053181074 1:0.36190347 2:0.47629304 3:0.080981794 4:0.1430773 5:-0.079471384 
-10 0:-0.80814144 1:-0.3075771 2:-0.045153583 3:0.022467069 4:-0.017764274 5:-0.095263069 
-10 0:-0.15839883 1:0.51128725 2:-0.25023384 3:-0.39120696 4:0.16013037 5:-0.018470826 
-10 0:-0.68512973 1:-0.38193825 2:0.33015642 3:0.25999222 4:-0.028430947 5:0.05178021 
-10 0:0.16506678 1:0.030654867 2:-0.10150412 3:0.1390109 4:0.15931457 5:-0.098311286 
-10 0:0.37646971 1:-0.22915686 2:0.0686244 3:0.17735283 4:-0.094994027 5:0.23829115 
-10 0:0.047441138 1:0.10392538 2:-0.56184067 3:0.025427347 4:0.031455224 5:-0.074019765 
