svm_type c_svc
kernel_type polynomial
degree 2
gamma 0.166667
coef0 0
nr_class 2
total_sv 29
rho -0.645265
label 1 -1
nr_sv 16 13
SV
4.517525956537675 0:0.35812724 1:0.80434783 2:0.35 3:0.61666667 4:0.15 5:0.20481928 6:0 
100 0:0.30149141 1:0.76086957 2:0.5 3:0.43333333 4:0.1175 5:0.32228916 6:1 
100 0:0.22597697 1:0.5 2:0 3:0.48333333 4:0.235 5:0.021084337 6:0 
100 0:0.49027752 1:0.95652174 2:0.025 3:0.26666667 4:0.2975 5:0.52108434 6:0 
57.82452442330668 0:0.49027752 1:0.80434783 2:0.09 3:0.295 4:0.3 5:0.48192771 6:0 
66.91572981781927 0:0.49027752 1:0.32608696 2:0.695 3:0.083333333 4:0.7525 5:0.76204819 6:0 
76.9563400042837 0:0.2826128 1:0.41304348 2:0.09 3:0.345 4:0.4475 5:0.3373494 6:0 
100 0:0.22597697 1:0.63043478 2:0 3:0.31666667 4:0.1775 5:0.34939759 6:0 
23.04310663383378 0:0.60354918 1:0.65217391 2:0.045 3:0.083333333 4:0.59 5:1 6:0 
100 0:0.24485558 1:0.67391304 2:0.6 3:0.38333333 4:0.34 5:0.28915663 6:0 
18.95388948015796 0:0.47139891 1:0.52173913 2:0 3:0.65 4:0.23 5:0.58433735 6:1 
100 0:0.32037002 1:0.63043478 2:0.135 3:0.23333333 4:0.165 5:0.22590361 6:0 
100 0:0.22597697 1:0.56521739 2:0.365 3:0.3 4:0.33 5:0.48795181 6:1 
100 0:0.32037002 1:0.599557 2:0.04 3:0.13333333 4:0.17 5:0.46385542 6:0 
100 0:0.39588446 1:0.56521739 2:0.135 3:0.21666667 4:0.6375 5:0.52409639 6:0 
74.93053593749492 0:0.37700585 1:0.58695652 2:0.2045 3:0.23333333 4:0 5:0.32831325 6:0 
-100 0:0.35812724 1:0.47826087 2:0.625 3:0.25 4:0.55 5:0.70180723 6:0 
-94.49539968142489 0:0.18821975 1:0.91304348 2:0.4 3:0.2 4:0.4 5:0.2439759 6:0 
-100 0:0.093826694 1:0.7826087 2:0 3:0.26666667 4:0 5:0.37048193 6:0 
-43.10147601739742 0:0.037190863 1:0.69565217 2:0.225 3:0.71666667 4:0.225 5:0.1626506 6:1 
-100 0:0.36756655 1:1 2:0.125 3:0.18333333 4:0.30330158 5:0.40621235 6:0 
-100 0:0.37700585 1:0.52173913 2:0.155 3:0.033333333 4:0.5325 5:0.86445783 6:0 
-100 0:0.13158392 1:0.56521739 2:0.25 3:0.43333333 4:0.30330158 5:0.40621235 6:1 
-100 0:0.008872947 1:0.52173913 2:0.185 3:0.2 4:0.41 5:0.46385542 6:0 
-100 0:0.0135926 1:0.32608696 2:0.75 3:0.21666667 4:0.285 5:0.40060241 6:0 
-85.54477655461169 0:0.39588446 1:0.76086957 2:0 3:0.25 4:0.48 5:0.55120482 6:1 
-100 0:0.2826128 1:0.54347826 2:0.02 3:0.28333333 4:0.2175 5:0.34337349 6:0 
-100 0:0.75457806 1:0.84782609 2:0.02 3:0.31666667 4:0.12 5:0.34337349 6:0 
-100 0:0.023031905 1:0.60869565 2:0.255 3:0.48333333 4:0.1725 5:0.030120482 6:0 
