svm_type c_svc
kernel_type linear
nr_class 2
total_sv 66
rho -0.995869
label 1 -1
nr_sv 33 33
SV
0.001 0:0.15651947 1:-0.0065204005 2:-0.34494371 3:-0.031073283 4:-0.28547569 5:0.071750466 
0.001 0:0.24547133 1:-0.17856911 2:-0.40074434 3:0.025753209 4:0.22486943 5:-0.10558928 
0.001 0:0.28677564 1:-0.16031669 2:-0.12978229 3:0.16583705 4:-0.031584087 5:0.027722258 
0.001 0:0.2207945 1:-0.11043996 2:-0.094060849 3:-0.10909107 4:0.11497919 5:-0.39016081 
0.001 0:-0.54003387 1:-0.68667389 2:0.059404101 3:-0.22704547 4:0.11419242 5:0.19308591 
0.001 0:0.24133154 1:-0.17618347 2:-0.2992312 3:-0.29389909 4:-0.44408601 5:-0.23195213 
0.001 0:0.1702555 1:-0.058657937 2:-0.383398 3:-0.14563406 4:-0.38713031 5:-0.085014889 
0.001 0:-0.77350299 1:-0.35676899 2:-0.14050598 3:-0.071343632 4:-0.17856103 5:0.21509839 
0.001 0:0.19862467 1:-0.1044378 2:-0.39557152 3:0.060530033 4:0.1284681 5:-0.1532544 
0.001 0:0.15115649 1:0.10182654 2:0.020989076 3:-0.075928505 4:0.17963834 5:0.031539446 
0.001 0:0.21283275 1:0.046761911 2:0.1316925 3:0.33307295 4:-0.15140958 5:0.14840426 
0.001 0:0.20584466 1:0.039058284 2:0.098379482 3:0.18638637 4:-0.090227044 5:0.091452694 
0.001 0:0.25036503 1:0.087456467 2:0.4393944 3:0.16445644 4:-0.13339585 5:0.3561061 
0.001 0:0.19261091 1:0.036662944 2:-0.027788366 3:-0.15307713 4:0.12586002 5:0.20727117 
0.001 0:-0.045000922 1:0.5247231 2:0.4627358 3:-0.49154604 4:0.064697219 5:0.067919207 
0.001 0:0.12864677 1:0.095514412 2:-0.036860769 3:-0.029714687 4:0.14785745 5:-0.18648338 
0.001 0:0.15054665 1:0.041486778 2:-0.15305513 3:0.22173358 4:0.10088341 5:-0.099907511 
0.001 0:0.15895291 1:0.25361749 2:0.70041722 3:0.16166522 4:-0.0093130839 5:-0.040181993 
0.001 0:-0.6613729 1:-0.45004785 2:0.16300572 3:-0.15753814 4:0.28522069 5:0.2057301 
0.001 0:0.27596787 1:-0.18800773 2:-0.22240583 3:0.19948759 4:-0.19037261 5:-0.10191176 
0.001 0:0.12854319 1:0.16681754 2:0.20243361 3:-0.063937956 4:0.019728885 5:-0.045041657 
0.001 0:0.21543151 1:-0.011805864 2:-0.06896405 3:0.019639805 4:0.3559062 5:0.14797647 
0.001 0:0.28526058 1:-0.14785007 2:-0.10732471 3:0.05807168 4:0.095576468 5:0.028802749 
0.001 0:-0.0065817089 1:0.29412886 2:-0.23706273 3:-0.2091117 4:-0.13532473 5:0.14107496 
0.001 0:-0.58826752 1:-0.62469021 2:0.20423045 3:0.045793343 4:-0.15939133 5:-0.25278439 
0.001 0:0.2758036 1:-0.13242688 2:0.020802886 3:0.0094207144 4:0.025520587 5:-0.17142512 
0.001 0:0.19319286 1:0.079184989 2:0.27632961 3:0.025078329 4:-0.082566162 5:-0.095440562 
0.001 0:0.16468035 1:0.028846937 2:-0.1941638 3:0.10310927 4:0.14232789 5:0.077542033 
0.001 0:-0.82117875 1:-0.23853616 2:0.087865854 3:-0.051437055 4:0.012063875 5:0.030288698 
0.001 0:0.15400769 1:0.090887643 2:0.016997345 3:0.19921263 4:0.20021229 5:-0.0020013232 
0.001 0:0.10789686 1:0.22035105 2:0.23930846 3:0.020761069 4:0.05648897 5:-0.049720931 
0.001 0:0.30047945 1:-0.10220878 2:0.14857873 3:0.089681081 4:-0.08377544 5:0.13187216 
0.001 0:0.17936113 1:0.0060048677 2:-0.16473902 3:0.045511944 4:0.13828583 5:0.082053049 
-0.001 0:-0.042850991 1:0.45420758 2:0.23236904 3:-0.32687013 4:-0.068514223 5:0.012707922 
-0.001 0:-0.0010661458 1:0.32161165 2:-0.21031283 3:0.1132558 4:-0.083079823 5:0.27482256 
-0.001 0:-0.21726964 1:0.69861697 2:0.081012136 3:-0.16559956 4:-0.054751189 5:-0.023505392 
-0.001 0:-0.87765375 1:-0.21096204 2:-0.16080802 3:0.12060358 4:-0.09792038 5:-0.0016477102 
-0.001 0:-0.99348337 1:0.05915243 2:0.10796694 3:-0.028832964 4:0.09708865 5:0.094769323 
-0.001 0:-0.99558789 1:0.022937212 2:0.014685311 3:-0.099998745 4:-0.15694929 5:0.042360039 
-0.001 0:-0.075504608 1:0.43077094 2:-0.076833812 3:0.17360006 4:-0.027286626 5:-0.047706795 
-0.001 0:-0.077468537 1:0.44595469 2:0.035199683 3:0.26526657 4:-0.20491815 5:-0.16822257 
-0.001 0:0.10395091 1:0.094979546 2:-0.26924381 3:0.39052502 4:0.081250204 5:-0.039833346 
-0.001 0:0.02970125 1:0.23140571 2:-0.20056277 3:0.42185197 4:-0.054433274 5:-0.10185592 
-0.001 0:-0.85707287 1:-0.19744019 2:0.14563981 3:0.092659335 4:0.21954518 5:-0.28321549 
-0.001 0:-0.20422723 1:0.58962632 2:-0.31036221 3:-0.4377493 4:-0.16147907 5:0.17250785 
-0.001 0:-0.16522322 1:0.5992721 2:-0.087914822 3:-0.088308969 4:0.069991482 5:0.1347008 
-0.001 0:-0.7846105 1:-0.43545138 2:-0.37390781 3:0.068539424 4:-0.21008809 5:-0.13956889 
-0.001 0:0.13805908 1:0.14760559 2:-0.0033695127 3:0.33203238 4:-0.10129557 5:0.24473462 
-0.001 0:0.053181074 1:0.36190347 2:0.47629304 3:0.080981794 4:0.1430773 5:-0.079471384 
-0.001 0:-0.8808868 1:-0.13947106 2:0.091774661 3:0.097741205 4:0.31949421 5:-0.027224812 
-0.001 0:-0.80814144 1:-0.3075771 2:-0.045153583 3:0.022467069 4:-0.017764274 5:-0.095263069 
-0.001 0:-0.31499996 1:0.87834839 2:0.071022084 3:-0.39584007 4:0.018332634 5:0.20056916 
-0.001 0:-0.039638916 1:0.36112831 2:-0.083640532 3:0.1082314 4:0.17438167 5:-0.16157282 
-0.001 0:-0.15839883 1:0.51128725 2:-0.25023384 3:-0.39120696 4:0.16013037 5:-0.018470826 
-0.001 0:-0.12541432 1:0.46656026 2:-0.21983107 3:-0.15255366 4:-0.11388171 5:-0.081966914 
-0.001 0:-0.02017197 1:0.33920062 2:-0.24258618 3:0.38623489 4:0.082535774 5:0.19091728 
-0.001 0:-0.13408641 1:0.47134571 2:-0.27664916 3:-0.21697281 4:-0.049244058 5:0.0046425724 
-0.001 0:-0.025765686 1:0.34385551 2:-0.25372022 3:0.27589212 4:0.14575512 5:0.16697728 
-0.001 0:-0.68512973 1:-0.38193825 2:0.33015642 3:0.25999222 4:-0.028430947 5:0.05178021 
-0.001 0:0.16506678 1:0.030654867 2:-0.10150412 3:0.1390109 4:0.15931457 5:-0.098311286 
-0.001 0:0.016393335 1:0.27064174 2:-0.085229603 3:0.35381332 4:0.092019592 5:-0.17655939 
-0.001 0:0.37646971 1:-0.22915686 2:0.0686244 3:0.17735283 4:-0.094994027 5:0.23829115 
-0.001 0:-0.84896386 1:-0.19773212 2:0.095820089 3:0.17960943 4:0.03465413 5:-0.039639432 
-0.001 0:-0.18719967 1:0.69586749 2:0.37278582 3:-0.1305567 4:-0.11281569 5:-0.25446146 
-0.001 0:0.047441138 1:0.10392538 2:-0.56184067 3:0.025427347 4:0.031455224 5:-0.074019765 
-0.001 0:-0.15028912 1:0.65204409 2:0.33179347 3:0.28277988 4:-0.35004583 5:-0.19309804 
