svm_type c_svc
kernel_type polynomial
degree 2
gamma 0.2
coef0 0
nr_class 2
total_sv 52
rho -1.65813
label 1 -1
nr_sv 26 26
SV
9733.48026078299 0:0.45518298 1:-0.34165573 2:0.30372632 3:-0.080438777 4:-0.14792091 5:-0.046180369 
3492.677907711766 0:-0.31883088 1:-1.0511748 2:0.052489285 3:-0.20760134 4:-0.22033439 5:0.14293676 
10000 0:0.42821795 1:-0.32281672 2:0.029234294 3:-0.046224291 4:0.17997592 5:0.21833673 
10000 0:0.24631983 1:-0.1300005 2:-0.22666308 3:-0.2995488 4:0.031906712 5:0.02836273 
4012.082137362893 0:0.33831513 1:-0.29336058 2:-0.098609389 3:-0.30161553 4:0.34438319 5:-0.35019748 
10000 0:-0.54003387 1:-0.68667389 2:0.059404101 3:-0.22704547 4:0.11419242 5:0.19308591 
2187.225015445304 0:0.24133154 1:-0.17618347 2:-0.2992312 3:-0.29389909 4:-0.44408601 5:-0.23195213 
3362.989478272305 0:-0.77350299 1:-0.35676899 2:-0.14050598 3:-0.071343632 4:-0.17856103 5:0.21509839 
10000 0:0.47017748 1:-0.43503486 2:-0.036386466 3:-0.18448229 4:0.016704092 5:0.036705343 
10000 0:0.38638967 1:-0.20881899 2:0.2322651 3:-0.018162234 4:0.061204646 5:0.18693274 
10000 0:0.21283275 1:0.046761911 2:0.1316925 3:0.33307295 4:-0.15140958 5:0.14840426 
9696.060564388814 0:0.20584466 1:0.039058284 2:0.098379482 3:0.18638637 4:-0.090227044 5:0.091452694 
10000 0:0.41244498 1:-0.22979713 2:0.4363745 3:-0.14939577 4:0.1539531 5:-0.014881507 
1114.752515611077 0:0.25036503 1:0.087456467 2:0.4393944 3:0.16445644 4:-0.13339585 5:0.3561061 
10000 0:-0.045000922 1:0.5247231 2:0.4627358 3:-0.49154604 4:0.064697219 5:0.067919207 
10000 0:0.15054665 1:0.041486778 2:-0.15305513 3:0.22173358 4:0.10088341 5:-0.099907511 
5956.195207884087 0:0.15895291 1:0.25361749 2:0.70041722 3:0.16166522 4:-0.0093130839 5:-0.040181993 
2451.069836826961 0:-0.6613729 1:-0.45004785 2:0.16300572 3:-0.15753814 4:0.28522069 5:0.2057301 
10000 0:0.52101131 1:-0.4859805 2:0.084610492 3:-0.16547617 4:-0.07825039 5:0.071284458 
4301.508202491424 0:0.27874212 1:-0.087107159 2:0.28884006 3:-0.18452603 4:0.1016343 5:-0.29601146 
10000 0:0.31863037 1:-0.16067469 2:0.017830149 3:0.092798902 4:0.031140628 5:0.10645389 
10000 0:-0.0065817089 1:0.29412886 2:-0.23706273 3:-0.2091117 4:-0.13532473 5:0.14107496 
10000 0:-0.58826752 1:-0.62469021 2:0.20423045 3:0.045793343 4:-0.15939133 5:-0.25278439 
7985.458324369629 0:0.39155243 1:-0.31302695 2:-0.049842396 3:0.047787846 4:0.019650152 5:0.049549007 
10000 0:-0.82117875 1:-0.23853616 2:0.087865854 3:-0.051437055 4:0.012063875 5:0.030288698 
10000 0:0.15400769 1:0.090887643 2:0.016997345 3:0.19921263 4:0.20021229 5:-0.0020013232 
-10000 0:-0.0010661458 1:0.32161165 2:-0.21031283 3:0.1132558 4:-0.083079823 5:0.27482256 
-6928.269495463727 0:-0.21726964 1:0.69861697 2:0.081012136 3:-0.16559956 4:-0.054751189 5:-0.023505392 
-9569.317609814534 0:-0.87765375 1:-0.21096204 2:-0.16080802 3:0.12060358 4:-0.09792038 5:-0.0016477102 
-10000 0:-0.99348337 1:0.05915243 2:0.10796694 3:-0.028832964 4:0.09708865 5:0.094769323 
-3419.858274714861 0:-0.99558789 1:0.022937212 2:0.014685311 3:-0.099998745 4:-0.15694929 5:0.042360039 
-10000 0:-0.075504608 1:0.43077094 2:-0.076833812 3:0.17360006 4:-0.027286626 5:-0.047706795 
-10000 0:-0.077468537 1:0.44595469 2:0.035199683 3:0.26526657 4:-0.20491815 5:-0.16822257 
-3407.596095997456 0:0.10395091 1:0.094979546 2:-0.26924381 3:0.39052502 4:0.081250204 5:-0.039833346 
-10000 0:0.02970125 1:0.23140571 2:-0.20056277 3:0.42185197 4:-0.054433274 5:-0.10185592 
-10000 0:-0.16522322 1:0.5992721 2:-0.087914822 3:-0.088308969 4:0.069991482 5:0.1347008 
-10000 0:-0.7846105 1:-0.43545138 2:-0.37390781 3:0.068539424 4:-0.21008809 5:-0.13956889 
-10000 0:0.13805908 1:0.14760559 2:-0.0033695127 3:0.33203238 4:-0.10129557 5:0.24473462 
-10000 0:0.053181074 1:0.36190347 2:0.47629304 3:0.080981794 4:0.1430773 5:-0.079471384 
-2964.282136008393 0:-0.8808868 1:-0.13947106 2:0.091774661 3:0.097741205 4:0.31949421 5:-0.027224812 
-10000 0:-0.039638916 1:0.36112831 2:-0.083640532 3:0.1082314 4:0.17438167 5:-0.16157282 
-1353.579255378927 0:-0.15839883 1:0.51128725 2:-0.25023384 3:-0.39120696 4:0.16013037 5:-0.018470826 
-10000 0:-0.12541432 1:0.46656026 2:-0.21983107 3:-0.15255366 4:-0.11388171 5:-0.081966914 
-7911.2527942625 0:-0.13408641 1:0.47134571 2:-0.27664916 3:-0.21697281 4:-0.049244058 5:0.0046425724 
-10000 0:-0.025765686 1:0.34385551 2:-0.25372022 3:0.27589212 4:0.14575512 5:0.16697728 
-3554.071360484548 0:-0.68512973 1:-0.38193825 2:0.33015642 3:0.25999222 4:-0.028430947 5:0.05178021 
-10000 0:0.16506678 1:0.030654867 2:-0.10150412 3:0.1390109 4:0.15931457 5:-0.098311286 
-10000 0:0.016393335 1:0.27064174 2:-0.085229603 3:0.35381332 4:0.092019592 5:-0.17655939 
-10000 0:0.37646971 1:-0.22915686 2:0.0686244 3:0.17735283 4:-0.094994027 5:0.23829115 
-75.4002834055138 0:-0.18719967 1:0.69586749 2:0.37278582 3:-0.1305567 4:-0.11281569 5:-0.25446146 
-10000 0:0.047441138 1:0.10392538 2:-0.56184067 3:0.025427347 4:0.031455224 5:-0.074019765 
-5109.872145616824 0:-0.15028912 1:0.65204409 2:0.33179347 3:0.28277988 4:-0.35004583 5:-0.19309804 
