svm_type c_svc
kernel_type polynomial
degree 0
gamma 0.166667
coef0 0
nr_class 2
total_sv 66
rho -1
label 1 -1
nr_sv 33 33
SV
10 0:0.49027752 1:0.80434783 2:0.09 3:0.295 4:0.3 5:0.48192771 6:0 
10 0:0.92448556 1:0.34782609 2:0 3:0.25 4:0.33 5:0.55421687 6:0 
10 0:0.88672834 1:0.65217391 2:0 3:0.58333333 4:0.22 5:0.71084337 6:0 
10 0:0.77345667 1:0.93478261 2:0.1835 3:0.083333333 4:0.4025 5:0.6626506 6:0 
10 0:0.62242779 1:0.45652174 2:0 3:0.4 4:0.275 5:0.39156627 6:0 
10 0:0.54691335 1:0.54347826 2:0.335 3:0.18333333 4:0.255 5:0.26807229 6:0 
10 0:0.49027752 1:0.32608696 2:0.695 3:0.083333333 4:0.7525 5:0.76204819 6:0 
10 0:0.2826128 1:0.41304348 2:0.09 3:0.345 4:0.4475 5:0.3373494 6:0 
10 0:0.22597697 1:0.63043478 2:0 3:0.31666667 4:0.1775 5:0.34939759 6:0 
10 0:0.60354918 1:0.65217391 2:0.045 3:0.083333333 4:0.59 5:1 6:0 
10 0:0.50915613 1:0.41304348 2:0.25 3:0.1 4:0.42 5:0.22289157 6:1 
10 0:1 1:0.52173913 2:0 3:0.55666667 4:0.2275 5:0.18674699 6:0 
10 0:0.62242779 1:0.23913043 2:0.03 3:0.43666667 4:0.4125 5:0.58433735 6:0 
10 0:0.62242779 1:0.60869565 2:0.25 3:0.4 4:0.14 5:0.13554217 6:0 
10 0:0.62242779 1:0.67391304 2:0 3:0.31666667 4:0.30330158 5:0.2439759 6:0 
10 0:0.41476307 1:0.76086957 2:0 3:0.61666667 4:0 5:0.34036145 6:0 
10 0:0.45252029 1:0.52173913 2:0.25 3:0.26666667 4:0.3575 5:0.62349398 6:0 
10 0:0.45252029 1:0.47826087 2:0.115 3:0.043333333 4:0.175 5:0.21084337 6:0 
10 0:0.50915613 1:0.58695652 2:0 3:0.35 4:0.3025 5:0.15060241 6:0 
10 0:0.24485558 1:0.67391304 2:0.6 3:0.38333333 4:0.34 5:0.28915663 6:0 
10 0:0.47139891 1:0.52173913 2:0 3:0.65 4:0.23 5:0.58433735 6:1 
10 0:0.50915613 1:0.47826087 2:0 3:0.46666667 4:0.235 5:0.40662651 6:0 
10 0:0.69794223 1:0.599557 2:0 3:0.41666667 4:0 5:0.28915663 6:0 
10 0:0.6413064 1:0.41304348 2:0 3:0.7 4:0.2325 5:0.4126506 6:0 
10 0:0.52803474 1:0.599557 2:0.1 3:0.36666667 4:0.4775 5:0.62349398 6:0 
10 0:0.32037002 1:0.63043478 2:0.135 3:0.23333333 4:0.165 5:0.22590361 6:0 
10 0:0.58467057 1:0.56521739 2:0.1875 3:0.28333333 4:0 5:0.31927711 6:0 
10 0:0.22597697 1:0.56521739 2:0.365 3:0.3 4:0.33 5:0.48795181 6:1 
10 0:0.32037002 1:0.599557 2:0.04 3:0.13333333 4:0.17 5:0.46385542 6:0 
10 0:0.39588446 1:0.56521739 2:0.135 3:0.21666667 4:0.6375 5:0.52409639 6:0 
10 0:0.77345667 1:0.63043478 2:0.05 3:0.45 4:0.135 5:0.61746988 6:0 
10 0:0.67906362 1:0.73913043 2:0.105 3:0.31666667 4:0.175 5:0.49096386 6:0 
10 0:0.37700585 1:0.58695652 2:0.2045 3:0.23333333 4:0 5:0.32831325 6:0 
-10 0:0.35812724 1:0.47826087 2:0.625 3:0.25 4:0.55 5:0.70180723 6:0 
-10 0:0.18821975 1:0.91304348 2:0.4 3:0.2 4:0.4 5:0.2439759 6:0 
-10 0:0.008872947 1:0.58695652 2:0.665 3:0.18333333 4:0.575 5:0.71686747 6:0 
-10 0:0.008872947 1:0.73913043 2:0.32 3:0.41666667 4:0.275 5:0.37048193 6:1 
-10 0:0.008872947 1:0.59845652 2:0.5 3:0.1 4:0.5 5:0.53614458 6:1 
-10 0:0.018312252 1:0.67391304 2:0.625 3:0.35 4:0.375 5:0.59638554 6:1 
-10 0:0.0135926 1:0.73913043 2:0.3125 3:0.23333333 4:0.3 5:0.59337349 6:0 
-10 0:0.008872947 1:0.82608696 2:0.25 3:0.36666667 4:0.318325 5:0.79518072 6:0 
-10 0:0.093826694 1:0.7826087 2:0 3:0.26666667 4:0 5:0.37048193 6:0 
-10 0:0.0041532943 1:0.86956522 2:0 3:0.34018072 4:0.30330158 5:0.40621235 6:0 
-10 0:0.018312252 1:0.36956522 2:0.085 3:0.26666667 4:0.43 5:0.57228916 6:1 
-10 0:0.056069473 1:0.599557 2:1 3:0.34018072 4:0.3 5:0.40621235 6:0 
-10 0:0.018312252 1:0.65217391 2:0.575 3:0.083333333 4:0.59 5:0.40621235 6:0 
-10 0:0.037190863 1:0.69565217 2:0.225 3:0.71666667 4:0.225 5:0.1626506 6:1 
-10 0:0.36756655 1:1 2:0.125 3:0.18333333 4:0.30330158 5:0.40621235 6:0 
-10 0:0.37700585 1:0.52173913 2:0.155 3:0.033333333 4:0.5325 5:0.86445783 6:0 
-10 0:0.037190863 1:0.45652174 2:0.20823837 3:0.05 4:0.35 5:0.47590361 6:1 
-10 0:0.13158392 1:0.56521739 2:0.25 3:0.43333333 4:0.30330158 5:0.40621235 6:1 
-10 0:0.018312252 1:0.54347826 2:1 3:0 4:0.615 5:0.67168675 6:0 
-10 0:0.008872947 1:0.52173913 2:0.185 3:0.2 4:0.41 5:0.46385542 6:0 
-10 0:0.0135926 1:0.32608696 2:0.75 3:0.21666667 4:0.285 5:0.40060241 6:0 
-10 0:0 1:0.599557 2:0.55 3:0.41666667 4:0.485 5:0.40662651 6:0 
-10 0:0.0135926 1:0.93478261 2:0.18 3:0.066666667 4:0.25 5:0.30722892 6:0 
-10 0:0.0135926 1:0.56521739 2:0.665 3:0.34018072 4:0.30330158 5:0.40621235 6:0 
-10 0:0.018312252 1:0.82608696 2:0.205 3:0.066666667 4:0.37 5:0.21686747 6:0 
-10 0:0.39588446 1:0.76086957 2:0 3:0.25 4:0.48 5:0.55120482 6:1 
-10 0:0.2826128 1:0.54347826 2:0.02 3:0.28333333 4:0.2175 5:0.34337349 6:0 
-10 0:0.008872947 1:0.69565217 2:0 3:0.24166667 4:0.2825 5:0.52409639 6:0 
-10 0:0.75457806 1:0.84782609 2:0.02 3:0.31666667 4:0.12 5:0.34337349 6:0 
-10 0:0.093826694 1:0.65217391 2:0.225 3:0.25 4:0.2125 5:0.61746988 6:1 
-10 0:0.074948084 1:0.5 2:0.505 3:0.26666667 4:0.7225 5:0.99698795 6:0 
-10 0:0.023031905 1:0.60869565 2:0.255 3:0.48333333 4:0.1725 5:0.030120482 6:0 
-10 0:0.0135926 1:0.93478261 2:0.2 3:0.36666667 4:1 5:0.84638554 6:0 
