svm_type c_svc
kernel_type polynomial
degree 1
gamma 0.2
coef0 0
nr_class 2
total_sv 20
rho -1.50429
label 1 -1
nr_sv 10 10
SV
998.9920827677752 0:-0.77350299 1:-0.35676899 2:-0.14050598 3:-0.071343632 4:-0.17856103 5:0.21509839 
1000 0:0.21283275 1:0.046761911 2:0.1316925 3:0.33307295 4:-0.15140958 5:0.14840426 
534.308098377106 0:0.12864677 1:0.095514412 2:-0.036860769 3:-0.029714687 4:0.14785745 5:-0.18648338 
1000 0:0.15054665 1:0.041486778 2:-0.15305513 3:0.22173358 4:0.10088341 5:-0.099907511 
636.1660220925697 0:0.15895291 1:0.25361749 2:0.70041722 3:0.16166522 4:-0.0093130839 5:-0.040181993 
1000 0:-0.0065817089 1:0.29412886 2:-0.23706273 3:-0.2091117 4:-0.13532473 5:0.14107496 
66.83321486469599 0:0.16468035 1:0.028846937 2:-0.1941638 3:0.10310927 4:0.14232789 5:0.077542033 
1000 0:-0.82117875 1:-0.23853616 2:0.087865854 3:-0.051437055 4:0.012063875 5:0.030288698 
1000 0:0.15400769 1:0.090887643 2:0.016997345 3:0.19921263 4:0.20021229 5:-0.0020013232 
1000 0:0.10789686 1:0.22035105 2:0.23930846 3:0.020761069 4:0.05648897 5:-0.049720931 
-1000 0:-0.042850991 1:0.45420758 2:0.23236904 3:-0.32687013 4:-0.068514223 5:0.012707922 
-253.9624048463901 0:-0.20422723 1:0.58962632 2:-0.31036221 3:-0.4377493 4:-0.16147907 5:0.17250785 
-1000 0:0.13805908 1:0.14760559 2:-0.0033695127 3:0.33203238 4:-0.10129557 5:0.24473462 
-1000 0:0.053181074 1:0.36190347 2:0.47629304 3:0.080981794 4:0.1430773 5:-0.079471384 
-1000 0:-0.80814144 1:-0.3075771 2:-0.045153583 3:0.022467069 4:-0.017764274 5:-0.095263069 
-57.18079452236641 0:-0.15839883 1:0.51128725 2:-0.25023384 3:-0.39120696 4:0.16013037 5:-0.018470826 
-1000 0:-0.68512973 1:-0.38193825 2:0.33015642 3:0.25999222 4:-0.028430947 5:0.05178021 
-1000 0:0.16506678 1:0.030654867 2:-0.10150412 3:0.1390109 4:0.15931457 5:-0.098311286 
-1000 0:0.37646971 1:-0.22915686 2:0.0686244 3:0.17735283 4:-0.094994027 5:0.23829115 
-925.1562187333913 0:0.047441138 1:0.10392538 2:-0.56184067 3:0.025427347 4:0.031455224 5:-0.074019765 
