svm_type c_svc
kernel_type polynomial
degree 4
gamma 0.166667
coef0 0
nr_class 2
total_sv 27
rho -0.955075
label 1 -1
nr_sv 13 14
SV
9236.814153919879 0:0.30149141 1:0.43478261 2:0 3:0.41666667 4:0.1 5:0 6:0 
2652.077188669485 0:0.83009251 1:0.54347826 2:0 3:0.23333333 4:0.25 5:0.093373494 6:0 
10000 0:0.49027752 1:0.95652174 2:0.025 3:0.26666667 4:0.2975 5:0.52108434 6:0 
2888.302414894801 0:0.49027752 1:0.32608696 2:0.695 3:0.083333333 4:0.7525 5:0.76204819 6:0 
10000 0:0.22597697 1:0.63043478 2:0 3:0.31666667 4:0.1775 5:0.34939759 6:0 
515.5969273430437 0:0.60354918 1:0.65217391 2:0.045 3:0.083333333 4:0.59 5:1 6:0 
600.2484514018117 0:0.41476307 1:0.76086957 2:0 3:0.61666667 4:0 5:0.34036145 6:0 
7527.561426254412 0:0.24485558 1:0.67391304 2:0.6 3:0.38333333 4:0.34 5:0.28915663 6:0 
2587.466484110932 0:0.69794223 1:0.599557 2:0 3:0.41666667 4:0 5:0.28915663 6:0 
10000 0:0.32037002 1:0.63043478 2:0.135 3:0.23333333 4:0.165 5:0.22590361 6:0 
3291.284087647167 0:0.22597697 1:0.56521739 2:0.365 3:0.3 4:0.33 5:0.48795181 6:1 
10000 0:0.32037002 1:0.599557 2:0.04 3:0.13333333 4:0.17 5:0.46385542 6:0 
5772.91540800435 0:0.37700585 1:0.58695652 2:0.2045 3:0.23333333 4:0 5:0.32831325 6:0 
-4811.981767108918 0:0.35812724 1:0.47826087 2:0.625 3:0.25 4:0.55 5:0.70180723 6:0 
-212.956569755814 0:0.18821975 1:0.91304348 2:0.4 3:0.2 4:0.4 5:0.2439759 6:0 
-10000 0:0.093826694 1:0.7826087 2:0 3:0.26666667 4:0 5:0.37048193 6:0 
-7052.41885819736 0:0.36756655 1:1 2:0.125 3:0.18333333 4:0.30330158 5:0.40621235 6:0 
-3078.02523142266 0:0.37700585 1:0.52173913 2:0.155 3:0.033333333 4:0.5325 5:0.86445783 6:0 
-1243.697685329338 0:0.037190863 1:0.45652174 2:0.20823837 3:0.05 4:0.35 5:0.47590361 6:1 
-2470.170669576796 0:0.13158392 1:0.56521739 2:0.25 3:0.43333333 4:0.30330158 5:0.40621235 6:1 
-10000 0:0.008872947 1:0.52173913 2:0.185 3:0.2 4:0.41 5:0.46385542 6:0 
-5552.674908571238 0:0.0135926 1:0.32608696 2:0.75 3:0.21666667 4:0.285 5:0.40060241 6:0 
-262.29424742217 0:0.39588446 1:0.76086957 2:0 3:0.25 4:0.48 5:0.55120482 6:1 
-10000 0:0.2826128 1:0.54347826 2:0.02 3:0.28333333 4:0.2175 5:0.34337349 6:0 
-388.0466048615905 0:0.008872947 1:0.69565217 2:0 3:0.24166667 4:0.2825 5:0.52409639 6:0 
-10000 0:0.75457806 1:0.84782609 2:0.02 3:0.31666667 4:0.12 5:0.34337349 6:0 
-10000 0:0.023031905 1:0.60869565 2:0.255 3:0.48333333 4:0.1725 5:0.030120482 6:0 
