svm_type c_svc
kernel_type linear
nr_class 2
total_sv 20
rho 0.047292
label 1 -1
nr_sv 10 10
SV
708.3840328177255 0:0.30149141 1:0.76086957 2:0.5 3:0.43333333 4:0.1175 5:0.32228916 6:1 
1000 0:0.49027752 1:0.95652174 2:0.025 3:0.26666667 4:0.2975 5:0.52108434 6:0 
723.0207615425179 0:0.2826128 1:0.41304348 2:0.09 3:0.345 4:0.4475 5:0.3373494 6:0 
1000 0:0.22597697 1:0.63043478 2:0 3:0.31666667 4:0.1775 5:0.34939759 6:0 
427.7692813693594 0:0.60354918 1:0.65217391 2:0.045 3:0.083333333 4:0.59 5:1 6:0 
1000 0:0.24485558 1:0.67391304 2:0.6 3:0.38333333 4:0.34 5:0.28915663 6:0 
2.418959777722232 0:0.32037002 1:0.63043478 2:0.135 3:0.23333333 4:0.165 5:0.22590361 6:0 
1000 0:0.22597697 1:0.56521739 2:0.365 3:0.3 4:0.33 5:0.48795181 6:1 
1000 0:0.32037002 1:0.599557 2:0.04 3:0.13333333 4:0.17 5:0.46385542 6:0 
1000 0:0.39588446 1:0.56521739 2:0.135 3:0.21666667 4:0.6375 5:0.52409639 6:0 
-1000 0:0.35812724 1:0.47826087 2:0.625 3:0.25 4:0.55 5:0.70180723 6:0 
-208.5543562970428 0:0.037190863 1:0.69565217 2:0.225 3:0.71666667 4:0.225 5:0.1626506 6:1 
-814.5031131200758 0:0.36756655 1:1 2:0.125 3:0.18333333 4:0.30330158 5:0.40621235 6:0 
-1000 0:0.37700585 1:0.52173913 2:0.155 3:0.033333333 4:0.5325 5:0.86445783 6:0 
-500.2055090888282 0:0.13158392 1:0.56521739 2:0.25 3:0.43333333 4:0.30330158 5:0.40621235 6:1 
-338.3300570013795 0:0.0135926 1:0.32608696 2:0.75 3:0.21666667 4:0.285 5:0.40060241 6:0 
-1000 0:0.39588446 1:0.76086957 2:0 3:0.25 4:0.48 5:0.55120482 6:1 
-1000 0:0.2826128 1:0.54347826 2:0.02 3:0.28333333 4:0.2175 5:0.34337349 6:0 
-1000 0:0.75457806 1:0.84782609 2:0.02 3:0.31666667 4:0.12 5:0.34337349 6:0 
-1000 0:0.023031905 1:0.60869565 2:0.255 3:0.48333333 4:0.1725 5:0.030120482 6:0 
